<?xml version="1.0"?>
<opencv_storage>
<stage3>
  <maxWeakCount>19</maxWeakCount>
  <stageThreshold>-1.5675694942474365e+00</stageThreshold>
  <weakClassifiers>
    <_>
      <internalNodes>
        0 -1 71531 -1.7254680395126343e-01</internalNodes>
      <leafValues>
        2.4163569509983063e-01 -6.4619612693786621e-01</leafValues></_>
    <_>
      <internalNodes>
        0 -1 145248 4.2510524392127991e-02</internalNodes>
      <leafValues>
        -2.8241029381752014e-01 3.5876089334487915e-01</leafValues></_>
    <_>
      <internalNodes>
        0 -1 99515 -9.4539374113082886e-03</internalNodes>
      <leafValues>
        2.8151193261146545e-01 -3.5776427388191223e-01</leafValues></_>
    <_>
      <internalNodes>
        0 -1 134240 1.4887204160913825e-03</internalNodes>
      <leafValues>
        1.6603383421897888e-01 -4.2404448986053467e-01</leafValues></_>
    <_>
      <internalNodes>
        0 -1 4215 2.9033827595412731e-03</internalNodes>
      <leafValues>
        1.4197531342506409e-01 -5.8483594655990601e-01</leafValues></_>
    <_>
      <internalNodes>
        0 -1 38303 -1.7408764688298106e-03</internalNodes>
      <leafValues>
        3.3592486381530762e-01 -2.2820690274238586e-01</leafValues></_>
    <_>
      <internalNodes>
        0 -1 68831 -4.5012556016445160e-02</internalNodes>
      <leafValues>
        -7.4396908283233643e-01 9.9479161202907562e-02</leafValues></_>
    <_>
      <internalNodes>
        0 -1 88654 -5.5834851227700710e-03</internalNodes>
      <leafValues>
        4.6332770586013794e-01 -1.6778680682182312e-01</leafValues></_>
    <_>
      <internalNodes>
        0 -1 81160 -5.3486581891775131e-03</internalNodes>
      <leafValues>
        -4.8628658056259155e-01 1.5113778412342072e-01</leafValues></_>
    <_>
      <internalNodes>
        0 -1 58189 -7.9748742282390594e-03</internalNodes>
      <leafValues>
        3.2461556792259216e-01 -2.2269362211227417e-01</leafValues></_>
    <_>
      <internalNodes>
        0 -1 82279 -1.9666443113237619e-03</internalNodes>
      <leafValues>
        3.1733620166778564e-01 -2.1103900671005249e-01</leafValues></_>
    <_>
      <internalNodes>
        0 -1 88625 9.3518719077110291e-03</internalNodes>
      <leafValues>
        -1.0870105028152466e-01 6.9338285923004150e-01</leafValues></_>
    <_>
      <internalNodes>
        0 -1 11710 -5.9331510215997696e-02</internalNodes>
      <leafValues>
        3.7341192364692688e-01 -1.6689378023147583e-01</leafValues></_>
    <_>
      <internalNodes>
        0 -1 123786 1.5332441031932831e-01</internalNodes>
      <leafValues>
        -1.3403275609016418e-01 6.2343984842300415e-01</leafValues></_>
    <_>
      <internalNodes>
        0 -1 101419 6.9972351193428040e-02</internalNodes>
      <leafValues>
        -8.5880853235721588e-02 7.4992752075195313e-01</leafValues></_>
    <_>
      <internalNodes>
        0 -1 10424 2.4413686245679855e-02</internalNodes>
      <leafValues>
        1.8425370752811432e-01 -4.0419220924377441e-01</leafValues></_>
    <_>
      <internalNodes>
        0 -1 88166 3.2212659716606140e-03</internalNodes>
      <leafValues>
        -2.4796605110168457e-01 3.1573864817619324e-01</leafValues></_>
    <_>
      <internalNodes>
        0 -1 81165 1.6270183550659567e-05</internalNodes>
      <leafValues>
        1.4663498103618622e-01 -4.8377737402915955e-01</leafValues></_>
    <_>
      <internalNodes>
        0 -1 13518 -8.1150699406862259e-03</internalNodes>
      <leafValues>
        3.0547749996185303e-01 -2.3868398368358612e-01</leafValues></_></weakClassifiers></stage3>
</opencv_storage>
