<?xml version="1.0"?>
<opencv_storage>
<stage5>
  <maxWeakCount>19</maxWeakCount>
  <stageThreshold>-1.3208696842193604e+00</stageThreshold>
  <weakClassifiers>
    <_>
      <internalNodes>
        0 -1 18745 8.2157298922538757e-02</internalNodes>
      <leafValues>
        -6.7226892709732056e-01 -2.8912057243629608e-18</leafValues></_>
    <_>
      <internalNodes>
        0 -1 14398 -3.9845976978540421e-02</internalNodes>
      <leafValues>
        2.3847642540931702e-01 -3.2460975646972656e-01</leafValues></_>
    <_>
      <internalNodes>
        0 -1 152359 2.1184425801038742e-02</internalNodes>
      <leafValues>
        -2.9717126488685608e-01 2.4567624926567078e-01</leafValues></_>
    <_>
      <internalNodes>
        0 -1 8151 6.1043101595714688e-05</internalNodes>
      <leafValues>
        1.8348903954029083e-01 -3.2154917716979980e-01</leafValues></_>
    <_>
      <internalNodes>
        0 -1 64271 -6.9894180633127689e-03</internalNodes>
      <leafValues>
        -6.9642651081085205e-01 1.0953887552022934e-01</leafValues></_>
    <_>
      <internalNodes>
        0 -1 98812 -1.6392637917306274e-05</internalNodes>
      <leafValues>
        -2.7873319387435913e-01 2.4535571038722992e-01</leafValues></_>
    <_>
      <internalNodes>
        0 -1 98185 3.9377855136990547e-03</internalNodes>
      <leafValues>
        -2.1078711748123169e-01 3.1911066174507141e-01</leafValues></_>
    <_>
      <internalNodes>
        0 -1 52072 5.9923408553004265e-03</internalNodes>
      <leafValues>
        1.3339199125766754e-01 -5.5781060457229614e-01</leafValues></_>
    <_>
      <internalNodes>
        0 -1 113075 2.1662113722413778e-03</internalNodes>
      <leafValues>
        -1.5557172894477844e-01 4.5095688104629517e-01</leafValues></_>
    <_>
      <internalNodes>
        0 -1 33818 4.9721587856765836e-05</internalNodes>
      <leafValues>
        1.7526718974113464e-01 -3.5528042912483215e-01</leafValues></_>
    <_>
      <internalNodes>
        0 -1 28809 -2.5372412055730820e-02</internalNodes>
      <leafValues>
        5.6657344102859497e-01 -1.1942543089389801e-01</leafValues></_>
    <_>
      <internalNodes>
        0 -1 113108 -8.6561008356511593e-04</internalNodes>
      <leafValues>
        3.2507887482643127e-01 -1.8125379085540771e-01</leafValues></_>
    <_>
      <internalNodes>
        0 -1 149211 3.8828351534903049e-03</internalNodes>
      <leafValues>
        8.7585769593715668e-02 -6.6131561994552612e-01</leafValues></_>
    <_>
      <internalNodes>
        0 -1 122705 1.7988830804824829e-02</internalNodes>
      <leafValues>
        -9.7389847040176392e-02 6.5716946125030518e-01</leafValues></_>
    <_>
      <internalNodes>
        0 -1 135390 8.9658357203006744e-02</internalNodes>
      <leafValues>
        -1.7882764339447021e-01 3.8516092300415039e-01</leafValues></_>
    <_>
      <internalNodes>
        0 -1 4493 -1.4037474989891052e-01</internalNodes>
      <leafValues>
        7.7290368080139160e-01 -8.2273527979850769e-02</leafValues></_>
    <_>
      <internalNodes>
        0 -1 13365 -1.0344140231609344e-02</internalNodes>
      <leafValues>
        4.5484429597854614e-01 -1.1743942648172379e-01</leafValues></_>
    <_>
      <internalNodes>
        0 -1 141207 5.0049215555191040e-02</internalNodes>
      <leafValues>
        -1.5680368244647980e-01 3.8973289728164673e-01</leafValues></_>
    <_>
      <internalNodes>
        0 -1 132436 -3.2259579747915268e-03</internalNodes>
      <leafValues>
        3.9995571970939636e-01 -1.6800878942012787e-01</leafValues></_></weakClassifiers></stage5>
</opencv_storage>
